digraph Tree {
node [shape=box, style="filled, rounded", color="black", fontname=helvetica] ;
edge [fontname=helvetica] ;
0 [label="cat_raza <= 2.5\nentropy = 1.0\nsamples = 1000\nvalue = [550.0, 540.0]\nclass = No", fillcolor="#fffdfb"] ;
1 [label="cat_inseminacion <= 0.5\nentropy = 0.992\nsamples = 531\nvalue = [261.0, 324.0]\nclass = N1 Neospora", fillcolor="#d9ecfa"] ;
0 -> 1 [labeldistance=2.5, labelangle=45, headlabel="True"] ;
2 [label="cat_no_carga <= 0.5\nentropy = 0.981\nsamples = 246\nvalue = [114.0, 158.4]\nclass = N1 Neospora", fillcolor="#c7e4f8"] ;
1 -> 2 ;
3 [label="cat_toro <= 0.5\nentropy = 0.994\nsamples = 140\nvalue = [70.0, 84.0]\nclass = N1 Neospora", fillcolor="#deeffb"] ;
2 -> 3 ;
4 [label="cat_edad <= 2.5\nentropy = 0.947\nsamples = 22\nvalue = [9.0, 15.6]\nclass = N1 Neospora", fillcolor="#abd6f4"] ;
3 -> 4 ;
5 [label="cat_raza <= 1.5\nentropy = 0.984\nsamples = 17\nvalue = [8.0, 10.8]\nclass = N1 Neospora", fillcolor="#cce6f8"] ;
4 -> 5 ;
6 [label="entropy = 1.0\nsamples = 9\nvalue = [5.0, 4.8]\nclass = No", fillcolor="#fefaf7"] ;
5 -> 6 ;
7 [label="entropy = 0.918\nsamples = 8\nvalue = [3, 6]\nclass = N1 Neospora", fillcolor="#9ccef2"] ;
5 -> 7 ;
8 [label="entropy = 0.663\nsamples = 5\nvalue = [1.0, 4.8]\nclass = N1 Neospora", fillcolor="#62b1ea"] ;
4 -> 8 ;
9 [label="cat_edad <= 2.5\nentropy = 0.998\nsamples = 118\nvalue = [61.0, 68.4]\nclass = N1 Neospora", fillcolor="#eaf4fc"] ;
3 -> 9 ;
10 [label="cat_terneros_debiles <= 0.5\nentropy = 0.994\nsamples = 104\nvalue = [52.0, 62.4]\nclass = N1 Neospora", fillcolor="#deeffb"] ;
9 -> 10 ;
11 [label="cat_raza <= 1.5\nentropy = 0.996\nsamples = 100\nvalue = [51.0, 58.8]\nclass = N1 Neospora", fillcolor="#e5f2fc"] ;
10 -> 11 ;
12 [label="cat_edad <= 1.5\nentropy = 0.999\nsamples = 39\nvalue = [22.0, 20.4]\nclass = No", fillcolor="#fdf6f1"] ;
11 -> 12 ;
13 [label="cat_distocias <= 0.5\nentropy = 0.954\nsamples = 12\nvalue = [8.0, 4.8]\nclass = No", fillcolor="#f5cdb0"] ;
12 -> 13 ;
14 [label="entropy = 0.863\nsamples = 8\nvalue = [6.0, 2.4]\nclass = No", fillcolor="#efb388"] ;
13 -> 14 ;
15 [label="entropy = 0.994\nsamples = 4\nvalue = [2.0, 2.4]\nclass = N1 Neospora", fillcolor="#deeffb"] ;
13 -> 15 ;
16 [label="cat_repeticion <= 0.5\nentropy = 0.998\nsamples = 27\nvalue = [14.0, 15.6]\nclass = N1 Neospora", fillcolor="#ebf5fc"] ;
12 -> 16 ;
17 [label="entropy = 0.998\nsamples = 21\nvalue = [12.0, 10.8]\nclass = No", fillcolor="#fcf2eb"] ;
16 -> 17 ;
18 [label="entropy = 0.874\nsamples = 6\nvalue = [2.0, 4.8]\nclass = N1 Neospora", fillcolor="#8bc6f0"] ;
16 -> 18 ;
19 [label="cat_edad <= 1.5\nentropy = 0.986\nsamples = 61\nvalue = [29.0, 38.4]\nclass = N1 Neospora", fillcolor="#cfe7f9"] ;
11 -> 19 ;
20 [label="cat_aborto <= 0.5\nentropy = 0.949\nsamples = 17\nvalue = [7.0, 12.0]\nclass = N1 Neospora", fillcolor="#acd6f4"] ;
19 -> 20 ;
21 [label="entropy = 0.961\nsamples = 14\nvalue = [6.0, 9.6]\nclass = N1 Neospora", fillcolor="#b5daf5"] ;
20 -> 21 ;
22 [label="entropy = 0.874\nsamples = 3\nvalue = [1.0, 2.4]\nclass = N1 Neospora", fillcolor="#8cc6f0"] ;
20 -> 22 ;
23 [label="cat_distocias <= 0.5\nentropy = 0.994\nsamples = 44\nvalue = [22.0, 26.4]\nclass = N1 Neospora", fillcolor="#deeffb"] ;
19 -> 23 ;
24 [label="cat_muerte_embrionaria <= 0.5\nentropy = 0.99\nsamples = 39\nvalue = [19.0, 24.0]\nclass = N1 Neospora", fillcolor="#d6ebfa"] ;
23 -> 24 ;
25 [label="cat_aborto <= 0.5\nentropy = 0.994\nsamples = 34\nvalue = [17.0, 20.4]\nclass = N1 Neospora", fillcolor="#deeffb"] ;
24 -> 25 ;
26 [label="entropy = 0.994\nsamples = 30\nvalue = [15.0, 18.0]\nclass = N1 Neospora", fillcolor="#deeffb"] ;
25 -> 26 ;
27 [label="entropy = 0.994\nsamples = 4\nvalue = [2.0, 2.4]\nclass = N1 Neospora", fillcolor="#deeffb"] ;
25 -> 27 ;
28 [label="entropy = 0.94\nsamples = 5\nvalue = [2.0, 3.6]\nclass = N1 Neospora", fillcolor="#a7d3f3"] ;
24 -> 28 ;
29 [label="entropy = 0.991\nsamples = 5\nvalue = [3.0, 2.4]\nclass = No", fillcolor="#fae6d7"] ;
23 -> 29 ;
30 [label="entropy = 0.755\nsamples = 4\nvalue = [1.0, 3.6]\nclass = N1 Neospora", fillcolor="#70b8ec"] ;
10 -> 30 ;
31 [label="cat_distocias <= 0.5\nentropy = 0.971\nsamples = 14\nvalue = [9, 6]\nclass = No", fillcolor="#f6d5bd"] ;
9 -> 31 ;
32 [label="cat_aborto <= 0.5\nentropy = 1.0\nsamples = 11\nvalue = [6, 6]\nclass = No", fillcolor="#ffffff"] ;
31 -> 32 ;
33 [label="entropy = 0.971\nsamples = 9\nvalue = [4, 6]\nclass = N1 Neospora", fillcolor="#bddef6"] ;
32 -> 33 ;
34 [label="entropy = 0.0\nsamples = 2\nvalue = [2, 0]\nclass = No", fillcolor="#e58139"] ;
32 -> 34 ;
35 [label="entropy = 0.0\nsamples = 3\nvalue = [3, 0]\nclass = No", fillcolor="#e58139"] ;
31 -> 35 ;
36 [label="cat_aborto <= 0.5\nentropy = 0.952\nsamples = 106\nvalue = [44.0, 74.4]\nclass = N1 Neospora", fillcolor="#aed7f4"] ;
2 -> 36 ;
37 [label="cat_distocias <= 0.5\nentropy = 0.882\nsamples = 50\nvalue = [17.0, 39.6]\nclass = N1 Neospora", fillcolor="#8ec7f0"] ;
36 -> 37 ;
38 [label="cat_raza <= 1.5\nentropy = 0.909\nsamples = 41\nvalue = [15.0, 31.2]\nclass = N1 Neospora", fillcolor="#98ccf2"] ;
37 -> 38 ;
39 [label="cat_terneros_debiles <= 0.5\nentropy = 0.782\nsamples = 15\nvalue = [4.0, 13.2]\nclass = N1 Neospora", fillcolor="#75bbed"] ;
38 -> 39 ;
40 [label="cat_repeticion <= 0.5\nentropy = 0.722\nsamples = 13\nvalue = [3.0, 12.0]\nclass = N1 Neospora", fillcolor="#6ab6ec"] ;
39 -> 40 ;
41 [label="entropy = 0.811\nsamples = 7\nvalue = [2, 6]\nclass = N1 Neospora", fillcolor="#7bbeee"] ;
40 -> 41 ;
42 [label="entropy = 0.592\nsamples = 6\nvalue = [1, 6]\nclass = N1 Neospora", fillcolor="#5aade9"] ;
40 -> 42 ;
43 [label="entropy = 0.994\nsamples = 2\nvalue = [1.0, 1.2]\nclass = N1 Neospora", fillcolor="#deeffb"] ;
39 -> 43 ;
44 [label="cat_edad <= 1.5\nentropy = 0.958\nsamples = 26\nvalue = [11.0, 18.0]\nclass = N1 Neospora", fillcolor="#b2d9f5"] ;
38 -> 44 ;
45 [label="entropy = 0.663\nsamples = 5\nvalue = [1.0, 4.8]\nclass = N1 Neospora", fillcolor="#62b1ea"] ;
44 -> 45 ;
46 [label="cat_repeticion <= 0.5\nentropy = 0.986\nsamples = 21\nvalue = [10.0, 13.2]\nclass = N1 Neospora", fillcolor="#cfe7f9"] ;
44 -> 46 ;
47 [label="cat_edad <= 2.5\nentropy = 1.0\nsamples = 11\nvalue = [6, 6]\nclass = No", fillcolor="#ffffff"] ;
46 -> 47 ;
48 [label="entropy = 1.0\nsamples = 9\nvalue = [5.0, 4.8]\nclass = No", fillcolor="#fefaf7"] ;
47 -> 48 ;
49 [label="entropy = 0.994\nsamples = 2\nvalue = [1.0, 1.2]\nclass = N1 Neospora", fillcolor="#deeffb"] ;
47 -> 49 ;
50 [label="cat_terneros_debiles <= 0.5\nentropy = 0.94\nsamples = 10\nvalue = [4.0, 7.2]\nclass = N1 Neospora", fillcolor="#a7d3f3"] ;
46 -> 50 ;
51 [label="entropy = 0.874\nsamples = 6\nvalue = [2.0, 4.8]\nclass = N1 Neospora", fillcolor="#8cc6f0"] ;
50 -> 51 ;
52 [label="entropy = 0.994\nsamples = 4\nvalue = [2.0, 2.4]\nclass = N1 Neospora", fillcolor="#deeffb"] ;
50 -> 52 ;
53 [label="entropy = 0.706\nsamples = 9\nvalue = [2.0, 8.4]\nclass = N1 Neospora", fillcolor="#68b4eb"] ;
37 -> 53 ;
54 [label="cat_edad <= 1.5\nentropy = 0.988\nsamples = 56\nvalue = [27.0, 34.8]\nclass = N1 Neospora", fillcolor="#d3e9f9"] ;
36 -> 54 ;
55 [label="cat_terneros_debiles <= 0.5\nentropy = 0.954\nsamples = 15\nvalue = [10, 6]\nclass = No", fillcolor="#f5cdb0"] ;
54 -> 55 ;
56 [label="entropy = 0.994\nsamples = 8\nvalue = [4.0, 4.8]\nclass = N1 Neospora", fillcolor="#deeffb"] ;
55 -> 56 ;
57 [label="entropy = 0.65\nsamples = 7\nvalue = [6.0, 1.2]\nclass = No", fillcolor="#ea9a61"] ;
55 -> 57 ;
58 [label="cat_terneros_debiles <= 0.5\nentropy = 0.952\nsamples = 41\nvalue = [17.0, 28.8]\nclass = N1 Neospora", fillcolor="#aed7f4"] ;
54 -> 58 ;
59 [label="cat_edad <= 2.5\nentropy = 0.987\nsamples = 23\nvalue = [11.0, 14.4]\nclass = N1 Neospora", fillcolor="#d0e8f9"] ;
58 -> 59 ;
60 [label="cat_repeticion <= 0.5\nentropy = 0.999\nsamples = 21\nvalue = [11.0, 12.0]\nclass = N1 Neospora", fillcolor="#eff7fd"] ;
59 -> 60 ;
61 [label="cat_raza <= 1.5\nentropy = 0.975\nsamples = 11\nvalue = [7.0, 4.8]\nclass = No", fillcolor="#f7d7c1"] ;
60 -> 61 ;
62 [label="entropy = 0.874\nsamples = 3\nvalue = [1.0, 2.4]\nclass = N1 Neospora", fillcolor="#8cc6f0"] ;
61 -> 62 ;
63 [label="entropy = 0.863\nsamples = 8\nvalue = [6.0, 2.4]\nclass = No", fillcolor="#efb388"] ;
61 -> 63 ;
64 [label="cat_distocias <= 0.5\nentropy = 0.94\nsamples = 10\nvalue = [4.0, 7.2]\nclass = N1 Neospora", fillcolor="#a7d3f3"] ;
60 -> 64 ;
65 [label="entropy = 0.994\nsamples = 4\nvalue = [2.0, 2.4]\nclass = N1 Neospora", fillcolor="#deeffb"] ;
64 -> 65 ;
66 [label="entropy = 0.874\nsamples = 6\nvalue = [2.0, 4.8]\nclass = N1 Neospora", fillcolor="#8cc6f0"] ;
64 -> 66 ;
67 [label="entropy = 0.0\nsamples = 2\nvalue = [0.0, 2.4]\nclass = N1 Neospora", fillcolor="#399de5"] ;
59 -> 67 ;
68 [label="cat_repeticion <= 0.5\nentropy = 0.874\nsamples = 18\nvalue = [6.0, 14.4]\nclass = N1 Neospora", fillcolor="#8cc6f0"] ;
58 -> 68 ;
69 [label="entropy = 0.755\nsamples = 4\nvalue = [1.0, 3.6]\nclass = N1 Neospora", fillcolor="#70b8ec"] ;
68 -> 69 ;
70 [label="cat_raza <= 1.5\nentropy = 0.9\nsamples = 14\nvalue = [5.0, 10.8]\nclass = N1 Neospora", fillcolor="#95caf1"] ;
68 -> 70 ;
71 [label="entropy = 0.994\nsamples = 4\nvalue = [2.0, 2.4]\nclass = N1 Neospora", fillcolor="#deeffb"] ;
70 -> 71 ;
72 [label="cat_distocias <= 0.5\nentropy = 0.831\nsamples = 10\nvalue = [3.0, 8.4]\nclass = N1 Neospora", fillcolor="#80c0ee"] ;
70 -> 72 ;
73 [label="entropy = 0.874\nsamples = 6\nvalue = [2.0, 4.8]\nclass = N1 Neospora", fillcolor="#8cc6f0"] ;
72 -> 73 ;
74 [label="entropy = 0.755\nsamples = 4\nvalue = [1.0, 3.6]\nclass = N1 Neospora", fillcolor="#70b8ec"] ;
72 -> 74 ;
75 [label="cat_distocias <= 0.5\nentropy = 0.997\nsamples = 285\nvalue = [147.0, 165.6]\nclass = N1 Neospora", fillcolor="#e9f4fc"] ;
1 -> 75 ;
76 [label="cat_edad <= 2.5\nentropy = 1.0\nsamples = 180\nvalue = [99.0, 97.2]\nclass = No", fillcolor="#fffdfb"] ;
75 -> 76 ;
77 [label="cat_raza <= 1.5\nentropy = 0.999\nsamples = 149\nvalue = [78.0, 85.2]\nclass = N1 Neospora", fillcolor="#eef7fd"] ;
76 -> 77 ;
78 [label="cat_repeticion <= 0.5\nentropy = 0.98\nsamples = 67\nvalue = [31.0, 43.2]\nclass = N1 Neospora", fillcolor="#c7e3f8"] ;
77 -> 78 ;
79 [label="cat_aborto <= 0.5\nentropy = 0.922\nsamples = 29\nvalue = [11.0, 21.6]\nclass = N1 Neospora", fillcolor="#9ecff2"] ;
78 -> 79 ;
80 [label="cat_edad <= 1.5\nentropy = 0.968\nsamples = 25\nvalue = [11.0, 16.8]\nclass = N1 Neospora", fillcolor="#bbddf6"] ;
79 -> 80 ;
81 [label="entropy = 0.0\nsamples = 2\nvalue = [0.0, 2.4]\nclass = N1 Neospora", fillcolor="#399de5"] ;
80 -> 81 ;
82 [label="cat_toro <= 0.5\nentropy = 0.987\nsamples = 23\nvalue = [11.0, 14.4]\nclass = N1 Neospora", fillcolor="#d0e8f9"] ;
80 -> 82 ;
83 [label="cat_no_carga <= 0.5\nentropy = 0.999\nsamples = 17\nvalue = [9.0, 9.6]\nclass = N1 Neospora", fillcolor="#f3f9fd"] ;
82 -> 83 ;
84 [label="entropy = 0.971\nsamples = 9\nvalue = [4, 6]\nclass = N1 Neospora", fillcolor="#bddef6"] ;
83 -> 84 ;
85 [label="entropy = 0.981\nsamples = 8\nvalue = [5.0, 3.6]\nclass = No", fillcolor="#f8dcc8"] ;
83 -> 85 ;
86 [label="entropy = 0.874\nsamples = 6\nvalue = [2.0, 4.8]\nclass = N1 Neospora", fillcolor="#8cc6f0"] ;
82 -> 86 ;
87 [label="entropy = 0.0\nsamples = 4\nvalue = [0.0, 4.8]\nclass = N1 Neospora", fillcolor="#399de5"] ;
79 -> 87 ;
88 [label="cat_no_carga <= 0.5\nentropy = 0.999\nsamples = 38\nvalue = [20.0, 21.6]\nclass = N1 Neospora", fillcolor="#f0f8fd"] ;
78 -> 88 ;
89 [label="cat_edad <= 1.5\nentropy = 0.927\nsamples = 13\nvalue = [5.0, 9.6]\nclass = N1 Neospora", fillcolor="#a0d0f3"] ;
88 -> 89 ;
90 [label="entropy = 0.779\nsamples = 5\nvalue = [4.0, 1.2]\nclass = No", fillcolor="#eda774"] ;
89 -> 90 ;
91 [label="entropy = 0.489\nsamples = 8\nvalue = [1.0, 8.4]\nclass = N1 Neospora", fillcolor="#51a9e8"] ;
89 -> 91 ;
92 [label="cat_edad <= 1.5\nentropy = 0.991\nsamples = 25\nvalue = [15.0, 12.0]\nclass = No", fillcolor="#fae6d7"] ;
88 -> 92 ;
93 [label="entropy = 0.874\nsamples = 6\nvalue = [2.0, 4.8]\nclass = N1 Neospora", fillcolor="#8bc6f0"] ;
92 -> 93 ;
94 [label="cat_toro <= 0.5\nentropy = 0.94\nsamples = 19\nvalue = [13.0, 7.2]\nclass = No", fillcolor="#f3c7a7"] ;
92 -> 94 ;
95 [label="cat_muerte_embrionaria <= 0.5\nentropy = 0.909\nsamples = 14\nvalue = [10.0, 4.8]\nclass = No", fillcolor="#f1bd98"] ;
94 -> 95 ;
96 [label="cat_aborto <= 0.5\nentropy = 0.954\nsamples = 12\nvalue = [8.0, 4.8]\nclass = No", fillcolor="#f5cdb0"] ;
95 -> 96 ;
97 [label="entropy = 0.863\nsamples = 4\nvalue = [3.0, 1.2]\nclass = No", fillcolor="#efb388"] ;
96 -> 97 ;
98 [label="entropy = 0.981\nsamples = 8\nvalue = [5.0, 3.6]\nclass = No", fillcolor="#f8dcc8"] ;
96 -> 98 ;
99 [label="entropy = 0.0\nsamples = 2\nvalue = [2, 0]\nclass = No", fillcolor="#e58139"] ;
95 -> 99 ;
100 [label="entropy = 0.991\nsamples = 5\nvalue = [3.0, 2.4]\nclass = No", fillcolor="#fae6d7"] ;
94 -> 100 ;
101 [label="cat_terneros_debiles <= 0.5\nentropy = 0.998\nsamples = 82\nvalue = [47.0, 42.0]\nclass = No", fillcolor="#fcf2ea"] ;
77 -> 101 ;
102 [label="cat_muerte_embrionaria <= 0.5\nentropy = 0.999\nsamples = 80\nvalue = [45.0, 42.0]\nclass = No", fillcolor="#fdf7f2"] ;
101 -> 102 ;
103 [label="cat_aborto <= 0.5\nentropy = 0.994\nsamples = 66\nvalue = [39.0, 32.4]\nclass = No", fillcolor="#fbeadd"] ;
102 -> 103 ;
104 [label="cat_repeticion <= 0.5\nentropy = 1.0\nsamples = 38\nvalue = [21.0, 20.4]\nclass = No", fillcolor="#fefbf9"] ;
103 -> 104 ;
105 [label="cat_toro <= 0.5\nentropy = 0.964\nsamples = 26\nvalue = [17.0, 10.8]\nclass = No", fillcolor="#f6d1b7"] ;
104 -> 105 ;
106 [label="cat_edad <= 1.5\nentropy = 0.996\nsamples = 12\nvalue = [7, 6]\nclass = No", fillcolor="#fbede3"] ;
105 -> 106 ;
107 [label="entropy = 0.0\nsamples = 2\nvalue = [2, 0]\nclass = No", fillcolor="#e58139"] ;
106 -> 107 ;
108 [label="cat_no_carga <= 0.5\nentropy = 0.994\nsamples = 10\nvalue = [5, 6]\nclass = N1 Neospora", fillcolor="#deeffb"] ;
106 -> 108 ;
109 [label="(...)", fillcolor="#C0C0C0"] ;
108 -> 109 ;
110 [label="(...)", fillcolor="#C0C0C0"] ;
108 -> 110 ;
111 [label="cat_edad <= 1.5\nentropy = 0.909\nsamples = 14\nvalue = [10.0, 4.8]\nclass = No", fillcolor="#f1bd98"] ;
105 -> 111 ;
112 [label="entropy = 0.994\nsamples = 2\nvalue = [1.0, 1.2]\nclass = N1 Neospora", fillcolor="#deeffb"] ;
111 -> 112 ;
113 [label="cat_no_carga <= 0.5\nentropy = 0.863\nsamples = 12\nvalue = [9.0, 3.6]\nclass = No", fillcolor="#efb388"] ;
111 -> 113 ;
114 [label="(...)", fillcolor="#C0C0C0"] ;
113 -> 114 ;
115 [label="(...)", fillcolor="#C0C0C0"] ;
113 -> 115 ;
116 [label="cat_no_carga <= 0.5\nentropy = 0.874\nsamples = 12\nvalue = [4.0, 9.6]\nclass = N1 Neospora", fillcolor="#8cc6f0"] ;
104 -> 116 ;
117 [label="entropy = 0.994\nsamples = 2\nvalue = [1.0, 1.2]\nclass = N1 Neospora", fillcolor="#deeffb"] ;
116 -> 117 ;
118 [label="cat_edad <= 1.5\nentropy = 0.831\nsamples = 10\nvalue = [3.0, 8.4]\nclass = N1 Neospora", fillcolor="#80c0ee"] ;
116 -> 118 ;
119 [label="entropy = 0.0\nsamples = 3\nvalue = [0.0, 3.6]\nclass = N1 Neospora", fillcolor="#399de5"] ;
118 -> 119 ;
120 [label="entropy = 0.961\nsamples = 7\nvalue = [3.0, 4.8]\nclass = N1 Neospora", fillcolor="#b5daf5"] ;
118 -> 120 ;
121 [label="cat_repeticion <= 0.5\nentropy = 0.971\nsamples = 28\nvalue = [18.0, 12.0]\nclass = No", fillcolor="#f6d5bd"] ;
103 -> 121 ;
122 [label="entropy = 0.994\nsamples = 8\nvalue = [4.0, 4.8]\nclass = N1 Neospora", fillcolor="#deeffb"] ;
121 -> 122 ;
123 [label="cat_toro <= 0.5\nentropy = 0.924\nsamples = 20\nvalue = [14.0, 7.2]\nclass = No", fillcolor="#f2c29f"] ;
121 -> 123 ;
124 [label="entropy = 0.779\nsamples = 10\nvalue = [8.0, 2.4]\nclass = No", fillcolor="#eda774"] ;
123 -> 124 ;
125 [label="cat_edad <= 1.5\nentropy = 0.991\nsamples = 10\nvalue = [6.0, 4.8]\nclass = No", fillcolor="#fae6d7"] ;
123 -> 125 ;
126 [label="entropy = 0.874\nsamples = 3\nvalue = [1.0, 2.4]\nclass = N1 Neospora", fillcolor="#8cc6f0"] ;
125 -> 126 ;
127 [label="entropy = 0.909\nsamples = 7\nvalue = [5.0, 2.4]\nclass = No", fillcolor="#f1bd98"] ;
125 -> 127 ;
128 [label="cat_edad <= 1.5\nentropy = 0.961\nsamples = 14\nvalue = [6.0, 9.6]\nclass = N1 Neospora", fillcolor="#b5daf5"] ;
102 -> 128 ;
129 [label="entropy = 0.991\nsamples = 5\nvalue = [3.0, 2.4]\nclass = No", fillcolor="#fae6d7"] ;
128 -> 129 ;
130 [label="entropy = 0.874\nsamples = 9\nvalue = [3.0, 7.2]\nclass = N1 Neospora", fillcolor="#8bc6f0"] ;
128 -> 130 ;
131 [label="entropy = 0.0\nsamples = 2\nvalue = [2, 0]\nclass = No", fillcolor="#e58139"] ;
101 -> 131 ;
132 [label="cat_raza <= 1.5\nentropy = 0.946\nsamples = 31\nvalue = [21.0, 12.0]\nclass = No", fillcolor="#f4c9aa"] ;
76 -> 132 ;
133 [label="cat_toro <= 0.5\nentropy = 0.841\nsamples = 17\nvalue = [13.0, 4.8]\nclass = No", fillcolor="#efb082"] ;
132 -> 133 ;
134 [label="entropy = 0.0\nsamples = 8\nvalue = [8, 0]\nclass = No", fillcolor="#e58139"] ;
133 -> 134 ;
135 [label="entropy = 1.0\nsamples = 9\nvalue = [5.0, 4.8]\nclass = No", fillcolor="#fefaf7"] ;
133 -> 135 ;
136 [label="cat_repeticion <= 0.5\nentropy = 0.998\nsamples = 14\nvalue = [8.0, 7.2]\nclass = No", fillcolor="#fcf2eb"] ;
132 -> 136 ;
137 [label="entropy = 0.954\nsamples = 9\nvalue = [6.0, 3.6]\nclass = No", fillcolor="#f5cdb0"] ;
136 -> 137 ;
138 [label="entropy = 0.94\nsamples = 5\nvalue = [2.0, 3.6]\nclass = N1 Neospora", fillcolor="#a7d3f3"] ;
136 -> 138 ;
139 [label="cat_repeticion <= 0.5\nentropy = 0.978\nsamples = 105\nvalue = [48.0, 68.4]\nclass = N1 Neospora", fillcolor="#c4e2f7"] ;
75 -> 139 ;
140 [label="cat_raza <= 1.5\nentropy = 0.94\nsamples = 19\nvalue = [13.0, 7.2]\nclass = No", fillcolor="#f3c7a7"] ;
139 -> 140 ;
141 [label="entropy = 0.65\nsamples = 7\nvalue = [6.0, 1.2]\nclass = No", fillcolor="#ea9a61"] ;
140 -> 141 ;
142 [label="cat_edad <= 2.5\nentropy = 0.996\nsamples = 12\nvalue = [7, 6]\nclass = No", fillcolor="#fbede3"] ;
140 -> 142 ;
143 [label="cat_toro <= 0.5\nentropy = 0.991\nsamples = 10\nvalue = [6.0, 4.8]\nclass = No", fillcolor="#fae6d7"] ;
142 -> 143 ;
144 [label="entropy = 0.994\nsamples = 4\nvalue = [2.0, 2.4]\nclass = N1 Neospora", fillcolor="#deeffb"] ;
143 -> 144 ;
145 [label="entropy = 0.954\nsamples = 6\nvalue = [4.0, 2.4]\nclass = No", fillcolor="#f5cdb0"] ;
143 -> 145 ;
146 [label="entropy = 0.994\nsamples = 2\nvalue = [1.0, 1.2]\nclass = N1 Neospora", fillcolor="#deeffb"] ;
142 -> 146 ;
147 [label="cat_toro <= 0.5\nentropy = 0.946\nsamples = 86\nvalue = [35.0, 61.2]\nclass = N1 Neospora", fillcolor="#aad5f4"] ;
139 -> 147 ;
148 [label="cat_raza <= 1.5\nentropy = 0.893\nsamples = 40\nvalue = [14.0, 31.2]\nclass = N1 Neospora", fillcolor="#92c9f1"] ;
147 -> 148 ;
149 [label="cat_aborto <= 0.5\nentropy = 0.971\nsamples = 18\nvalue = [8.0, 12.0]\nclass = N1 Neospora", fillcolor="#bddef6"] ;
148 -> 149 ;
150 [label="entropy = 0.954\nsamples = 6\nvalue = [4.0, 2.4]\nclass = No", fillcolor="#f5cdb0"] ;
149 -> 150 ;
151 [label="cat_terneros_debiles <= 0.5\nentropy = 0.874\nsamples = 12\nvalue = [4.0, 9.6]\nclass = N1 Neospora", fillcolor="#8cc6f0"] ;
149 -> 151 ;
152 [label="entropy = 0.706\nsamples = 9\nvalue = [2.0, 8.4]\nclass = N1 Neospora", fillcolor="#68b4eb"] ;
151 -> 152 ;
153 [label="entropy = 0.954\nsamples = 3\nvalue = [2.0, 1.2]\nclass = No", fillcolor="#f5cdb0"] ;
151 -> 153 ;
154 [label="cat_edad <= 2.5\nentropy = 0.792\nsamples = 22\nvalue = [6.0, 19.2]\nclass = N1 Neospora", fillcolor="#77bced"] ;
148 -> 154 ;
155 [label="cat_muerte_embrionaria <= 0.5\nentropy = 0.706\nsamples = 18\nvalue = [4.0, 16.8]\nclass = N1 Neospora", fillcolor="#68b4eb"] ;
154 -> 155 ;
156 [label="entropy = 0.489\nsamples = 8\nvalue = [1.0, 8.4]\nclass = N1 Neospora", fillcolor="#51a9e8"] ;
155 -> 156 ;
157 [label="cat_aborto <= 0.5\nentropy = 0.831\nsamples = 10\nvalue = [3.0, 8.4]\nclass = N1 Neospora", fillcolor="#80c0ee"] ;
155 -> 157 ;
158 [label="entropy = 0.874\nsamples = 3\nvalue = [1.0, 2.4]\nclass = N1 Neospora", fillcolor="#8cc6f0"] ;
157 -> 158 ;
159 [label="entropy = 0.811\nsamples = 7\nvalue = [2, 6]\nclass = N1 Neospora", fillcolor="#7bbeee"] ;
157 -> 159 ;
160 [label="entropy = 0.994\nsamples = 4\nvalue = [2.0, 2.4]\nclass = N1 Neospora", fillcolor="#deeffb"] ;
154 -> 160 ;
161 [label="cat_edad <= 1.5\nentropy = 0.977\nsamples = 46\nvalue = [21.0, 30.0]\nclass = N1 Neospora", fillcolor="#c4e2f7"] ;
147 -> 161 ;
162 [label="entropy = 0.811\nsamples = 7\nvalue = [2, 6]\nclass = N1 Neospora", fillcolor="#7bbeee"] ;
161 -> 162 ;
163 [label="cat_raza <= 1.5\nentropy = 0.99\nsamples = 39\nvalue = [19.0, 24.0]\nclass = N1 Neospora", fillcolor="#d6ebfa"] ;
161 -> 163 ;
164 [label="cat_terneros_debiles <= 0.5\nentropy = 0.94\nsamples = 20\nvalue = [8.0, 14.4]\nclass = N1 Neospora", fillcolor="#a7d3f3"] ;
163 -> 164 ;
165 [label="cat_aborto <= 0.5\nentropy = 0.907\nsamples = 11\nvalue = [4.0, 8.4]\nclass = N1 Neospora", fillcolor="#97ccf1"] ;
164 -> 165 ;
166 [label="entropy = 0.874\nsamples = 3\nvalue = [1.0, 2.4]\nclass = N1 Neospora", fillcolor="#8bc6f0"] ;
165 -> 166 ;
167 [label="entropy = 0.918\nsamples = 8\nvalue = [3, 6]\nclass = N1 Neospora", fillcolor="#9ccef2"] ;
165 -> 167 ;
168 [label="entropy = 0.971\nsamples = 9\nvalue = [4, 6]\nclass = N1 Neospora", fillcolor="#bddef6"] ;
164 -> 168 ;
169 [label="cat_edad <= 2.5\nentropy = 0.997\nsamples = 19\nvalue = [11.0, 9.6]\nclass = No", fillcolor="#fcefe6"] ;
163 -> 169 ;
170 [label="cat_terneros_debiles <= 0.5\nentropy = 0.981\nsamples = 16\nvalue = [10.0, 7.2]\nclass = No", fillcolor="#f8dcc8"] ;
169 -> 170 ;
171 [label="cat_aborto <= 0.5\nentropy = 0.975\nsamples = 11\nvalue = [7.0, 4.8]\nclass = No", fillcolor="#f7d7c1"] ;
170 -> 171 ;
172 [label="entropy = 0.991\nsamples = 5\nvalue = [3.0, 2.4]\nclass = No", fillcolor="#fae6d7"] ;
171 -> 172 ;
173 [label="entropy = 0.954\nsamples = 6\nvalue = [4.0, 2.4]\nclass = No", fillcolor="#f5cdb0"] ;
171 -> 173 ;
174 [label="entropy = 0.991\nsamples = 5\nvalue = [3.0, 2.4]\nclass = No", fillcolor="#fae6d7"] ;
170 -> 174 ;
175 [label="entropy = 0.874\nsamples = 3\nvalue = [1.0, 2.4]\nclass = N1 Neospora", fillcolor="#8cc6f0"] ;
169 -> 175 ;
176 [label="cat_edad <= 2.5\nentropy = 0.985\nsamples = 469\nvalue = [289.0, 216.0]\nclass = No", fillcolor="#f8dfcd"] ;
0 -> 176 [labeldistance=2.5, labelangle=-45, headlabel="False"] ;
177 [label="cat_muerte_embrionaria <= 0.5\nentropy = 0.995\nsamples = 372\nvalue = [218.0, 184.8]\nclass = No", fillcolor="#fbece1"] ;
176 -> 177 ;
178 [label="cat_toro <= 0.5\nentropy = 0.988\nsamples = 315\nvalue = [192.0, 147.6]\nclass = No", fillcolor="#f9e2d1"] ;
177 -> 178 ;
179 [label="cat_inseminacion <= 0.5\nentropy = 0.919\nsamples = 105\nvalue = [74.0, 37.2]\nclass = No", fillcolor="#f2c09d"] ;
178 -> 179 ;
180 [label="cat_raza <= 3.5\nentropy = 0.997\nsamples = 19\nvalue = [11.0, 9.6]\nclass = No", fillcolor="#fcefe6"] ;
179 -> 180 ;
181 [label="cat_edad <= 1.5\nentropy = 0.924\nsamples = 10\nvalue = [7.0, 3.6]\nclass = No", fillcolor="#f2c29f"] ;
180 -> 181 ;
182 [label="entropy = 0.779\nsamples = 5\nvalue = [4.0, 1.2]\nclass = No", fillcolor="#eda774"] ;
181 -> 182 ;
183 [label="entropy = 0.991\nsamples = 5\nvalue = [3.0, 2.4]\nclass = No", fillcolor="#fae6d7"] ;
181 -> 183 ;
184 [label="entropy = 0.971\nsamples = 9\nvalue = [4, 6]\nclass = N1 Neospora", fillcolor="#bddef6"] ;
180 -> 184 ;
185 [label="cat_no_carga <= 0.5\nentropy = 0.887\nsamples = 86\nvalue = [63.0, 27.6]\nclass = No", fillcolor="#f0b890"] ;
179 -> 185 ;
186 [label="cat_distocias <= 0.5\nentropy = 0.612\nsamples = 31\nvalue = [27.0, 4.8]\nclass = No", fillcolor="#ea975c"] ;
185 -> 186 ;
187 [label="cat_repeticion <= 0.5\nentropy = 0.451\nsamples = 25\nvalue = [23.0, 2.4]\nclass = No", fillcolor="#e88e4e"] ;
186 -> 187 ;
188 [label="entropy = 0.0\nsamples = 16\nvalue = [16, 0]\nclass = No", fillcolor="#e58139"] ;
187 -> 188 ;
189 [label="entropy = 0.82\nsamples = 9\nvalue = [7.0, 2.4]\nclass = No", fillcolor="#eeac7d"] ;
187 -> 189 ;
190 [label="entropy = 0.954\nsamples = 6\nvalue = [4.0, 2.4]\nclass = No", fillcolor="#f5cdb0"] ;
186 -> 190 ;
191 [label="cat_terneros_debiles <= 0.5\nentropy = 0.963\nsamples = 55\nvalue = [36.0, 22.8]\nclass = No", fillcolor="#f5d1b6"] ;
185 -> 191 ;
192 [label="cat_distocias <= 0.5\nentropy = 0.943\nsamples = 47\nvalue = [32.0, 18.0]\nclass = No", fillcolor="#f4c8a8"] ;
191 -> 192 ;
193 [label="cat_aborto <= 0.5\nentropy = 0.966\nsamples = 43\nvalue = [28.0, 18.0]\nclass = No", fillcolor="#f6d2b8"] ;
192 -> 193 ;
194 [label="cat_raza <= 3.5\nentropy = 0.994\nsamples = 18\nvalue = [9.0, 10.8]\nclass = N1 Neospora", fillcolor="#deeffb"] ;
193 -> 194 ;
195 [label="entropy = 0.874\nsamples = 9\nvalue = [3.0, 7.2]\nclass = N1 Neospora", fillcolor="#8bc6f0"] ;
194 -> 195 ;
196 [label="entropy = 0.954\nsamples = 9\nvalue = [6.0, 3.6]\nclass = No", fillcolor="#f5cdb0"] ;
194 -> 196 ;
197 [label="cat_edad <= 1.5\nentropy = 0.848\nsamples = 25\nvalue = [19.0, 7.2]\nclass = No", fillcolor="#efb184"] ;
193 -> 197 ;
198 [label="entropy = 0.998\nsamples = 7\nvalue = [4.0, 3.6]\nclass = No", fillcolor="#fcf2eb"] ;
197 -> 198 ;
199 [label="cat_repeticion <= 0.5\nentropy = 0.709\nsamples = 18\nvalue = [15.0, 3.6]\nclass = No", fillcolor="#eb9f69"] ;
197 -> 199 ;
200 [label="entropy = 0.863\nsamples = 4\nvalue = [3.0, 1.2]\nclass = No", fillcolor="#efb388"] ;
199 -> 200 ;
201 [label="cat_raza <= 3.5\nentropy = 0.65\nsamples = 14\nvalue = [12.0, 2.4]\nclass = No", fillcolor="#ea9a61"] ;
199 -> 201 ;
202 [label="(...)", fillcolor="#C0C0C0"] ;
201 -> 202 ;
203 [label="(...)", fillcolor="#C0C0C0"] ;
201 -> 203 ;
204 [label="entropy = 0.0\nsamples = 4\nvalue = [4, 0]\nclass = No", fillcolor="#e58139"] ;
192 -> 204 ;
205 [label="entropy = 0.994\nsamples = 8\nvalue = [4.0, 4.8]\nclass = N1 Neospora", fillcolor="#deeffb"] ;
191 -> 205 ;
206 [label="cat_edad <= 1.5\nentropy = 0.999\nsamples = 210\nvalue = [118.0, 110.4]\nclass = No", fillcolor="#fdf7f2"] ;
178 -> 206 ;
207 [label="cat_no_carga <= 0.5\nentropy = 0.946\nsamples = 62\nvalue = [42.0, 24.0]\nclass = No", fillcolor="#f4c9aa"] ;
206 -> 207 ;
208 [label="cat_inseminacion <= 0.5\nentropy = 0.984\nsamples = 34\nvalue = [21.0, 15.6]\nclass = No", fillcolor="#f8dfcc"] ;
207 -> 208 ;
209 [label="cat_terneros_debiles <= 0.5\nentropy = 0.921\nsamples = 27\nvalue = [19.0, 9.6]\nclass = No", fillcolor="#f2c19d"] ;
208 -> 209 ;
210 [label="cat_aborto <= 0.5\nentropy = 0.863\nsamples = 24\nvalue = [18.0, 7.2]\nclass = No", fillcolor="#efb388"] ;
209 -> 210 ;
211 [label="cat_distocias <= 0.5\nentropy = 0.894\nsamples = 22\nvalue = [16.0, 7.2]\nclass = No", fillcolor="#f1ba92"] ;
210 -> 211 ;
212 [label="cat_raza <= 3.5\nentropy = 0.937\nsamples = 16\nvalue = [11, 6]\nclass = No", fillcolor="#f3c6a5"] ;
211 -> 212 ;
213 [label="entropy = 0.924\nsamples = 10\nvalue = [7.0, 3.6]\nclass = No", fillcolor="#f2c29f"] ;
212 -> 213 ;
214 [label="entropy = 0.954\nsamples = 6\nvalue = [4.0, 2.4]\nclass = No", fillcolor="#f5cdb0"] ;
212 -> 214 ;
215 [label="entropy = 0.709\nsamples = 6\nvalue = [5.0, 1.2]\nclass = No", fillcolor="#eb9f69"] ;
211 -> 215 ;
216 [label="entropy = 0.0\nsamples = 2\nvalue = [2, 0]\nclass = No", fillcolor="#e58139"] ;
210 -> 216 ;
217 [label="entropy = 0.874\nsamples = 3\nvalue = [1.0, 2.4]\nclass = N1 Neospora", fillcolor="#8cc6f0"] ;
209 -> 217 ;
218 [label="entropy = 0.811\nsamples = 7\nvalue = [2, 6]\nclass = N1 Neospora", fillcolor="#7bbeee"] ;
208 -> 218 ;
219 [label="cat_aborto <= 0.5\nentropy = 0.863\nsamples = 28\nvalue = [21.0, 8.4]\nclass = No", fillcolor="#efb388"] ;
207 -> 219 ;
220 [label="cat_terneros_debiles <= 0.5\nentropy = 0.971\nsamples = 14\nvalue = [9, 6]\nclass = No", fillcolor="#f6d5bd"] ;
219 -> 220 ;
221 [label="cat_repeticion <= 0.5\nentropy = 0.996\nsamples = 12\nvalue = [7, 6]\nclass = No", fillcolor="#fbede3"] ;
220 -> 221 ;
222 [label="cat_distocias <= 0.5\nentropy = 0.924\nsamples = 10\nvalue = [7.0, 3.6]\nclass = No", fillcolor="#f2c29f"] ;
221 -> 222 ;
223 [label="entropy = 0.981\nsamples = 8\nvalue = [5.0, 3.6]\nclass = No", fillcolor="#f8dcc8"] ;
222 -> 223 ;
224 [label="entropy = 0.0\nsamples = 2\nvalue = [2, 0]\nclass = No", fillcolor="#e58139"] ;
222 -> 224 ;
225 [label="entropy = -0.0\nsamples = 2\nvalue = [0.0, 2.4]\nclass = N1 Neospora", fillcolor="#399de5"] ;
221 -> 225 ;
226 [label="entropy = 0.0\nsamples = 2\nvalue = [2, 0]\nclass = No", fillcolor="#e58139"] ;
220 -> 226 ;
227 [label="cat_inseminacion <= 0.5\nentropy = 0.65\nsamples = 14\nvalue = [12.0, 2.4]\nclass = No", fillcolor="#ea9a61"] ;
219 -> 227 ;
228 [label="entropy = 0.863\nsamples = 8\nvalue = [6.0, 2.4]\nclass = No", fillcolor="#efb388"] ;
227 -> 228 ;
229 [label="entropy = 0.0\nsamples = 6\nvalue = [6, 0]\nclass = No", fillcolor="#e58139"] ;
227 -> 229 ;
230 [label="cat_inseminacion <= 0.5\nentropy = 0.997\nsamples = 148\nvalue = [76.0, 86.4]\nclass = N1 Neospora", fillcolor="#e7f3fc"] ;
206 -> 230 ;
231 [label="cat_terneros_debiles <= 0.5\nentropy = 0.991\nsamples = 106\nvalue = [52.0, 64.8]\nclass = N1 Neospora", fillcolor="#d8ecfa"] ;
230 -> 231 ;
232 [label="cat_repeticion <= 0.5\nentropy = 0.976\nsamples = 88\nvalue = [40.0, 57.6]\nclass = N1 Neospora", fillcolor="#c2e1f7"] ;
231 -> 232 ;
233 [label="cat_raza <= 3.5\nentropy = 0.997\nsamples = 64\nvalue = [33.0, 37.2]\nclass = N1 Neospora", fillcolor="#e9f4fc"] ;
232 -> 233 ;
234 [label="cat_aborto <= 0.5\nentropy = 0.984\nsamples = 34\nvalue = [16.0, 21.6]\nclass = N1 Neospora", fillcolor="#cce6f8"] ;
233 -> 234 ;
235 [label="cat_distocias <= 0.5\nentropy = 0.964\nsamples = 30\nvalue = [13.0, 20.4]\nclass = N1 Neospora", fillcolor="#b7dbf6"] ;
234 -> 235 ;
236 [label="cat_no_carga <= 0.5\nentropy = 0.958\nsamples = 26\nvalue = [11.0, 18.0]\nclass = N1 Neospora", fillcolor="#b2d9f5"] ;
235 -> 236 ;
237 [label="(...)", fillcolor="#C0C0C0"] ;
236 -> 237 ;
238 [label="(...)", fillcolor="#C0C0C0"] ;
236 -> 238 ;
239 [label="entropy = 0.994\nsamples = 4\nvalue = [2.0, 2.4]\nclass = N1 Neospora", fillcolor="#deeffb"] ;
235 -> 239 ;
240 [label="entropy = 0.863\nsamples = 4\nvalue = [3.0, 1.2]\nclass = No", fillcolor="#efb388"] ;
234 -> 240 ;
241 [label="cat_aborto <= 0.5\nentropy = 0.999\nsamples = 30\nvalue = [17.0, 15.6]\nclass = No", fillcolor="#fdf5ef"] ;
233 -> 241 ;
242 [label="cat_no_carga <= 0.5\nentropy = 0.988\nsamples = 23\nvalue = [14.0, 10.8]\nclass = No", fillcolor="#f9e2d2"] ;
241 -> 242 ;
243 [label="entropy = 0.971\nsamples = 14\nvalue = [9, 6]\nclass = No", fillcolor="#f6d5bd"] ;
242 -> 243 ;
244 [label="entropy = 1.0\nsamples = 9\nvalue = [5.0, 4.8]\nclass = No", fillcolor="#fefaf7"] ;
242 -> 244 ;
245 [label="entropy = 0.961\nsamples = 7\nvalue = [3.0, 4.8]\nclass = N1 Neospora", fillcolor="#b5daf5"] ;
241 -> 245 ;
246 [label="cat_aborto <= 0.5\nentropy = 0.82\nsamples = 24\nvalue = [7.0, 20.4]\nclass = N1 Neospora", fillcolor="#7dbfee"] ;
232 -> 246 ;
247 [label="cat_raza <= 3.5\nentropy = 0.931\nsamples = 18\nvalue = [7.0, 13.2]\nclass = N1 Neospora", fillcolor="#a2d1f3"] ;
246 -> 247 ;
248 [label="entropy = 0.874\nsamples = 6\nvalue = [2.0, 4.8]\nclass = N1 Neospora", fillcolor="#8bc6f0"] ;
247 -> 248 ;
249 [label="cat_no_carga <= 0.5\nentropy = 0.953\nsamples = 12\nvalue = [5.0, 8.4]\nclass = N1 Neospora", fillcolor="#afd7f4"] ;
247 -> 249 ;
250 [label="entropy = 0.991\nsamples = 5\nvalue = [3.0, 2.4]\nclass = No", fillcolor="#fae6d7"] ;
249 -> 250 ;
251 [label="entropy = 0.811\nsamples = 7\nvalue = [2, 6]\nclass = N1 Neospora", fillcolor="#7bbeee"] ;
249 -> 251 ;
252 [label="entropy = 0.0\nsamples = 6\nvalue = [0.0, 7.2]\nclass = N1 Neospora", fillcolor="#399de5"] ;
246 -> 252 ;
253 [label="cat_aborto <= 0.5\nentropy = 0.954\nsamples = 18\nvalue = [12.0, 7.2]\nclass = No", fillcolor="#f5cdb0"] ;
231 -> 253 ;
254 [label="entropy = 0.994\nsamples = 4\nvalue = [2.0, 2.4]\nclass = N1 Neospora", fillcolor="#deeffb"] ;
253 -> 254 ;
255 [label="cat_distocias <= 0.5\nentropy = 0.909\nsamples = 14\nvalue = [10.0, 4.8]\nclass = No", fillcolor="#f1bd98"] ;
253 -> 255 ;
256 [label="entropy = 0.779\nsamples = 5\nvalue = [4.0, 1.2]\nclass = No", fillcolor="#eda774"] ;
255 -> 256 ;
257 [label="entropy = 0.954\nsamples = 9\nvalue = [6.0, 3.6]\nclass = No", fillcolor="#f5cdb0"] ;
255 -> 257 ;
258 [label="cat_aborto <= 0.5\nentropy = 0.998\nsamples = 42\nvalue = [24.0, 21.6]\nclass = No", fillcolor="#fcf2eb"] ;
230 -> 258 ;
259 [label="cat_distocias <= 0.5\nentropy = 0.886\nsamples = 15\nvalue = [11.0, 4.8]\nclass = No", fillcolor="#f0b88f"] ;
258 -> 259 ;
260 [label="cat_raza <= 3.5\nentropy = 0.924\nsamples = 10\nvalue = [7.0, 3.6]\nclass = No", fillcolor="#f2c29f"] ;
259 -> 260 ;
261 [label="entropy = 0.954\nsamples = 6\nvalue = [4.0, 2.4]\nclass = No", fillcolor="#f5cdb0"] ;
260 -> 261 ;
262 [label="entropy = 0.863\nsamples = 4\nvalue = [3.0, 1.2]\nclass = No", fillcolor="#efb388"] ;
260 -> 262 ;
263 [label="entropy = 0.779\nsamples = 5\nvalue = [4.0, 1.2]\nclass = No", fillcolor="#eda774"] ;
259 -> 263 ;
264 [label="cat_no_carga <= 0.5\nentropy = 0.988\nsamples = 27\nvalue = [13.0, 16.8]\nclass = N1 Neospora", fillcolor="#d2e9f9"] ;
258 -> 264 ;
265 [label="entropy = 0.954\nsamples = 9\nvalue = [6.0, 3.6]\nclass = No", fillcolor="#f5cdb0"] ;
264 -> 265 ;
266 [label="cat_raza <= 3.5\nentropy = 0.931\nsamples = 18\nvalue = [7.0, 13.2]\nclass = N1 Neospora", fillcolor="#a2d1f3"] ;
264 -> 266 ;
267 [label="cat_terneros_debiles <= 0.5\nentropy = 0.907\nsamples = 11\nvalue = [4.0, 8.4]\nclass = N1 Neospora", fillcolor="#97ccf1"] ;
266 -> 267 ;
268 [label="entropy = 0.961\nsamples = 7\nvalue = [3.0, 4.8]\nclass = N1 Neospora", fillcolor="#b5daf5"] ;
267 -> 268 ;
269 [label="entropy = 0.755\nsamples = 4\nvalue = [1.0, 3.6]\nclass = N1 Neospora", fillcolor="#70b8ec"] ;
267 -> 269 ;
270 [label="entropy = 0.961\nsamples = 7\nvalue = [3.0, 4.8]\nclass = N1 Neospora", fillcolor="#b5daf5"] ;
266 -> 270 ;
271 [label="cat_aborto <= 0.5\nentropy = 0.977\nsamples = 57\nvalue = [26.0, 37.2]\nclass = N1 Neospora", fillcolor="#c3e1f7"] ;
177 -> 271 ;
272 [label="entropy = 0.489\nsamples = 8\nvalue = [1.0, 8.4]\nclass = N1 Neospora", fillcolor="#51a9e8"] ;
271 -> 272 ;
273 [label="cat_raza <= 3.5\nentropy = 0.996\nsamples = 49\nvalue = [25.0, 28.8]\nclass = N1 Neospora", fillcolor="#e5f2fc"] ;
271 -> 273 ;
274 [label="cat_no_carga <= 0.5\nentropy = 0.953\nsamples = 24\nvalue = [10.0, 16.8]\nclass = N1 Neospora", fillcolor="#afd7f4"] ;
273 -> 274 ;
275 [label="entropy = 0.954\nsamples = 6\nvalue = [4.0, 2.4]\nclass = No", fillcolor="#f5cdb0"] ;
274 -> 275 ;
276 [label="cat_edad <= 1.5\nentropy = 0.874\nsamples = 18\nvalue = [6.0, 14.4]\nclass = N1 Neospora", fillcolor="#8cc6f0"] ;
274 -> 276 ;
277 [label="cat_inseminacion <= 0.5\nentropy = 0.94\nsamples = 10\nvalue = [4.0, 7.2]\nclass = N1 Neospora", fillcolor="#a7d3f3"] ;
276 -> 277 ;
278 [label="entropy = 0.755\nsamples = 4\nvalue = [1.0, 3.6]\nclass = N1 Neospora", fillcolor="#70b8ec"] ;
277 -> 278 ;
279 [label="entropy = 0.994\nsamples = 6\nvalue = [3.0, 3.6]\nclass = N1 Neospora", fillcolor="#deeffb"] ;
277 -> 279 ;
280 [label="entropy = 0.755\nsamples = 8\nvalue = [2.0, 7.2]\nclass = N1 Neospora", fillcolor="#70b8ec"] ;
276 -> 280 ;
281 [label="cat_edad <= 1.5\nentropy = 0.991\nsamples = 25\nvalue = [15.0, 12.0]\nclass = No", fillcolor="#fae6d7"] ;
273 -> 281 ;
282 [label="entropy = 0.82\nsamples = 9\nvalue = [7.0, 2.4]\nclass = No", fillcolor="#eeac7d"] ;
281 -> 282 ;
283 [label="cat_toro <= 0.5\nentropy = 0.994\nsamples = 16\nvalue = [8.0, 9.6]\nclass = N1 Neospora", fillcolor="#deeffb"] ;
281 -> 283 ;
284 [label="cat_terneros_debiles <= 0.5\nentropy = 0.975\nsamples = 11\nvalue = [7.0, 4.8]\nclass = No", fillcolor="#f7d7c1"] ;
283 -> 284 ;
285 [label="entropy = 0.994\nsamples = 6\nvalue = [3.0, 3.6]\nclass = N1 Neospora", fillcolor="#deeffb"] ;
284 -> 285 ;
286 [label="entropy = 0.779\nsamples = 5\nvalue = [4.0, 1.2]\nclass = No", fillcolor="#eda774"] ;
284 -> 286 ;
287 [label="entropy = 0.663\nsamples = 5\nvalue = [1.0, 4.8]\nclass = N1 Neospora", fillcolor="#62b1ea"] ;
283 -> 287 ;
288 [label="cat_terneros_debiles <= 0.5\nentropy = 0.888\nsamples = 97\nvalue = [71.0, 31.2]\nclass = No", fillcolor="#f0b890"] ;
176 -> 288 ;
289 [label="cat_toro <= 0.5\nentropy = 0.85\nsamples = 87\nvalue = [66.0, 25.2]\nclass = No", fillcolor="#efb185"] ;
288 -> 289 ;
290 [label="cat_no_carga <= 0.5\nentropy = 0.922\nsamples = 37\nvalue = [26.0, 13.2]\nclass = No", fillcolor="#f2c19e"] ;
289 -> 290 ;
291 [label="cat_inseminacion <= 0.5\nentropy = 0.709\nsamples = 12\nvalue = [10.0, 2.4]\nclass = No", fillcolor="#eb9f69"] ;
290 -> 291 ;
292 [label="entropy = 0.863\nsamples = 4\nvalue = [3.0, 1.2]\nclass = No", fillcolor="#efb388"] ;
291 -> 292 ;
293 [label="entropy = 0.601\nsamples = 8\nvalue = [7.0, 1.2]\nclass = No", fillcolor="#e9975b"] ;
291 -> 293 ;
294 [label="cat_raza <= 3.5\nentropy = 0.973\nsamples = 25\nvalue = [16.0, 10.8]\nclass = No", fillcolor="#f7d6bf"] ;
290 -> 294 ;
295 [label="cat_aborto <= 0.5\nentropy = 0.977\nsamples = 19\nvalue = [12.0, 8.4]\nclass = No", fillcolor="#f7d9c4"] ;
294 -> 295 ;
296 [label="cat_repeticion <= 0.5\nentropy = 0.985\nsamples = 13\nvalue = [8, 6]\nclass = No", fillcolor="#f8e0ce"] ;
295 -> 296 ;
297 [label="entropy = 0.998\nsamples = 7\nvalue = [4.0, 3.6]\nclass = No", fillcolor="#fcf2eb"] ;
296 -> 297 ;
298 [label="entropy = 0.954\nsamples = 6\nvalue = [4.0, 2.4]\nclass = No", fillcolor="#f5cdb0"] ;
296 -> 298 ;
299 [label="entropy = 0.954\nsamples = 6\nvalue = [4.0, 2.4]\nclass = No", fillcolor="#f5cdb0"] ;
295 -> 299 ;
300 [label="entropy = 0.954\nsamples = 6\nvalue = [4.0, 2.4]\nclass = No", fillcolor="#f5cdb0"] ;
294 -> 300 ;
301 [label="cat_muerte_embrionaria <= 0.5\nentropy = 0.779\nsamples = 50\nvalue = [40.0, 12.0]\nclass = No", fillcolor="#eda774"] ;
289 -> 301 ;
302 [label="cat_raza <= 3.5\nentropy = 0.82\nsamples = 45\nvalue = [35.0, 12.0]\nclass = No", fillcolor="#eeac7d"] ;
301 -> 302 ;
303 [label="cat_inseminacion <= 0.5\nentropy = 0.902\nsamples = 25\nvalue = [18.0, 8.4]\nclass = No", fillcolor="#f1bc95"] ;
302 -> 303 ;
304 [label="cat_no_carga <= 0.5\nentropy = 0.799\nsamples = 19\nvalue = [15.0, 4.8]\nclass = No", fillcolor="#eda978"] ;
303 -> 304 ;
305 [label="entropy = 0.981\nsamples = 8\nvalue = [5.0, 3.6]\nclass = No", fillcolor="#f8dcc8"] ;
304 -> 305 ;
306 [label="cat_aborto <= 0.5\nentropy = 0.491\nsamples = 11\nvalue = [10.0, 1.2]\nclass = No", fillcolor="#e89051"] ;
304 -> 306 ;
307 [label="entropy = -0.0\nsamples = 7\nvalue = [7, 0]\nclass = No", fillcolor="#e58139"] ;
306 -> 307 ;
308 [label="entropy = 0.863\nsamples = 4\nvalue = [3.0, 1.2]\nclass = No", fillcolor="#efb388"] ;
306 -> 308 ;
309 [label="entropy = 0.994\nsamples = 6\nvalue = [3.0, 3.6]\nclass = N1 Neospora", fillcolor="#deeffb"] ;
303 -> 309 ;
310 [label="cat_inseminacion <= 0.5\nentropy = 0.668\nsamples = 20\nvalue = [17.0, 3.6]\nclass = No", fillcolor="#eb9c63"] ;
302 -> 310 ;
311 [label="cat_no_carga <= 0.5\nentropy = 0.863\nsamples = 12\nvalue = [9.0, 3.6]\nclass = No", fillcolor="#efb388"] ;
310 -> 311 ;
312 [label="entropy = 0.863\nsamples = 8\nvalue = [6.0, 2.4]\nclass = No", fillcolor="#efb388"] ;
311 -> 312 ;
313 [label="entropy = 0.863\nsamples = 4\nvalue = [3.0, 1.2]\nclass = No", fillcolor="#efb388"] ;
311 -> 313 ;
314 [label="entropy = 0.0\nsamples = 8\nvalue = [8, 0]\nclass = No", fillcolor="#e58139"] ;
310 -> 314 ;
315 [label="entropy = 0.0\nsamples = 5\nvalue = [5, 0]\nclass = No", fillcolor="#e58139"] ;
301 -> 315 ;
316 [label="cat_raza <= 3.5\nentropy = 0.994\nsamples = 10\nvalue = [5, 6]\nclass = N1 Neospora", fillcolor="#deeffb"] ;
288 -> 316 ;
317 [label="entropy = 0.909\nsamples = 7\nvalue = [5.0, 2.4]\nclass = No", fillcolor="#f1bd98"] ;
316 -> 317 ;
318 [label="entropy = -0.0\nsamples = 3\nvalue = [0.0, 3.6]\nclass = N1 Neospora", fillcolor="#399de5"] ;
316 -> 318 ;
}